{
   "test_update_weights_net_1_layer": {
      "net": "net_1_layer",
      "X": [
         [
            0.14554985,
            0.56587006,
            0.4756659,
            0.02521078
         ],
         [
            0.14545852,
            0.24757117,
            0.13881091,
            0.41665709
         ],
         [
            0.4,
            0.2,
            0.1,
            -0.3
         ]
      ],
      "Z_vals": [
         [
            [
               0.6795913097170765,
               0.2839947660509215,
               -0.115663491453663,
               0.09491216251961343,
               -0.2375249574562569,
               -0.14210414302781177
            ],
            [
               0.5305533701361577,
               0.46355431785598167,
               -0.04340042767198859,
               0.08177663057110293,
               0.027032852589445044,
               -0.19490663100666455
            ],
            [
               0.2506395109106847,
               0.10850990494608379,
               -0.018678260476880214,
               0.10594590309102137,
               -0.13706313014564936,
               -0.05419566217383453
            ]
         ]
      ],
      "deltas": [
         [
            [
               0.020117510451624947,
               0.022574738739190792,
               -0.04791011183735778,
               -0.001489502082991941,
               -0.07545089006680021,
               -0.10809512011373319
            ],
            [
               0.07231292718249525,
               0.02258283092309732,
               -0.10331620013603539,
               -0.06046436925101336,
               -0.0701990171636618,
               -0.12104586941393754
            ],
            [
               -0.015651565005053603,
               0.010560980256654431,
               -0.06516503598751126,
               -0.08027384634375018,
               -0.09565768095130467,
               -0.06606021892002795
            ]
         ]
      ],
      "soln": [
         [
            [
               -0.000767788726290666,
               -0.0005571854991894254,
               0.0021639134796090443,
               0.001422277176777555,
               0.002413075881817667,
               0.002952012084476987
            ],
            [
               -0.13551171540946289,
               0.2503428117701278,
               0.6504290963321142,
               0.504579384096981,
               1.1076376551533746,
               -0.0707168655337938
            ],
            [
               -0.6978322185812008,
               -0.20015913778165462,
               -0.2616268338691821,
               0.00352531668839304,
               -0.08986708554556032,
               0.23942924852693473
            ],
            [
               -0.9498827245080036,
               -0.25857359698762106,
               0.41987996128139576,
               -0.028743131206041776,
               0.6792744497210869,
               0.11114493925010531
            ],
            [
               -0.14141255780123593,
               0.962916370626181,
               0.0865369479302471,
               0.19171024429582717,
               -0.6518755961745235,
               0.7180538828245636
            ]
         ]
      ]
   }
}
